svm_type c_svc
kernel_type rbf
gamma 3.05176e-05
nr_class 2
total_sv 281
rho 10.7881
label 1 0
probA -0.561145
probB -0.0685254
nr_sv 143 138
SV
32768 1:-1 2:-1 3:-1 4:-1 5:-1 6:-1 7:-1 8:-1 9:-0.961755 10:-1 11:-1 12:-1 13:-1 14:-1 15:-1 16:-1 17:-1 18:-0.97247 19:-0.92887 20:-1 21:-0.915842 
32768 1:-1 2:-1 3:-1 4:-1 5:-1 6:-1 7:-1 8:-1 9:-0.961755 10:-1 11:-0.956129 12:-1 13:-1 14:-0.860941 15:-0.714286 16:-1 17:-1 18:-0.97247 19:-0.92887 20:-1 21:-0.915842 
32768 1:-0.860941 2:-0.956129 3:-0.945513 4:-1 5:-0.731225 6:-1 7:-1 8:-0.972154 9:-0.961755 10:-1 11:-1 12:-1 13:-0.358491 14:-1 15:-1 16:-0.957973 17:-0.938849 18:-0.944939 19:-1 20:-1 21:-0.915842 
32768 1:-0.93047 2:-1 3:-0.945513 4:-0.694064 5:-0.865613 6:-1 7:-1 8:-0.944308 9:-1 10:-1 11:-0.956129 12:-0.831683 13:-1 14:-0.93047 15:-0.714286 16:-1 17:-1 18:-0.97247 19:-1 20:-1 21:-1 
32768 1:-1 2:-1 3:-1 4:-1 5:-0.865613 6:-1 7:-1 8:-1 9:-1 10:-1 11:-1 12:-1 13:-1 14:-1 15:-1 16:-1 17:-1 18:-1 19:-1 20:-1 21:-1 
32768 1:-0.791411 2:-0.827097 3:-0.836538 4:-0.694064 5:-0.596838 6:-0.82199 7:-0.190476 8:-0.944308 9:-0.583802 10:-0.622222 11:-0.956129 12:-0.831683 13:-1 14:-0.725971 15:-1 16:-1 17:-0.877698 18:-0.917409 19:-0.786611 20:-0.855932 21:-0.915842 
32768 1:-1 2:-1 3:-1 4:-1 5:-1 6:-1 7:-1 8:-1 9:-0.961755 10:-0.874074 11:-0.912258 12:-0.831683 13:-1 14:-0.860941 15:-1 16:-1 17:-1 18:-1 19:-1 20:-0.711864 21:-1 
32768 1:-1 2:-1 3:-1 4:-1 5:-1 6:-1 7:-1 8:-1 9:-1 10:-1 11:-1 12:-1 13:-1 14:-0.93047 15:-1 16:-0.957973 17:-1 18:-1 19:-1 20:-1 21:-1 
6693.056287475167 1:-0.447853 2:-0.607742 3:-0.785256 5:-0.0671937 6:-0.469459 7:-1 8:-0.69697 9:-0.811024 10:-0.125926 11:-0.563871 12:-0.49505 13:-1 14:0.721881 15:-0.714286 16:-0.873918 17:-0.21223 18:-0.590283 19:-0.506276 20:0.144068 21:-0.668317 
32768 1:-0.860941 2:-0.868387 3:-0.730769 4:-0.844749 5:-1 6:-1 7:1 8:-0.916462 9:-0.849269 10:-1 11:-0.956129 12:-1 13:-1 14:-0.860941 15:-1 16:-1 17:-0.938849 18:-0.944939 19:-0.92887 20:-0.855932 21:-0.915842 
32768 1:-0.791411 2:-1 3:-0.891026 4:-0.844749 5:-0.865613 6:-0.940663 7:-1 8:-0.916462 9:-1 10:-1 11:-0.956129 12:-1 13:-1 14:-0.93047 15:-0.714286 16:-1 17:-1 18:-0.97247 19:-0.92887 20:-0.711864 21:-1 
32768 1:-1 2:-1 3:-1 4:-1 5:-1 6:-0.940663 7:-1 8:-0.972154 9:-1 10:-1 11:-0.956129 12:-0.831683 13:-1 14:-1 15:-1 16:-1 17:-1 18:-1 19:-1 20:-1 21:-0.915842 
3061.943874778732 1:-0.860941 2:-0.739355 3:-0.836538 4:-0.922374 5:-0.201581 6:-0.82199 7:-1 8:-0.972154 9:-1 10:-0.874074 11:-0.827097 12:-1 13:-1 14:-0.791411 15:-0.142857 16:-1 17:-0.938849 18:-0.97247 19:-1 20:-0.144068 21:-0.915842 
32768 1:-0.93047 2:-0.956129 3:-1 4:-1 5:-1 6:-1 7:-1 8:-1 9:-1 10:-1 11:-1 12:-1 13:-1 14:-0.93047 15:-0.714286 16:-1 17:-0.938849 18:-0.97247 19:-1 20:-0.855932 21:-1 
32768 1:-0.656442 2:-0.956129 3:-1 4:-1 5:-0.335968 6:-0.647469 7:-0.595238 8:-0.890254 9:-0.885264 10:-1 11:-0.868387 12:-1 13:-1 14:-0.447853 15:-1 16:-0.957973 17:-0.877698 18:-0.917409 19:-1 20:-0.711864 21:-0.915842 
32768 1:-0.860941 2:-0.827097 3:-0.945513 4:-0.922374 5:-0.731225 6:-1 7:-1 8:-0.944308 9:-0.961755 10:-0.874074 11:-0.827097 12:-0.663366 13:-1 14:-0.93047 15:-1 16:-1 17:-0.877698 18:-0.944939 19:-1 20:-0.855932 21:-0.915842 
32768 1:-0.93047 2:-0.868387 3:-0.945513 4:-1 5:-0.596838 6:-1 7:-1 8:-1 9:-1 10:-1 11:-1 12:-1 13:-0.358491 14:-0.93047 15:-1 16:-0.957973 17:-0.758993 18:-1 19:-0.92887 20:-1 21:-1 
32768 1:-1 2:-0.912258 3:-0.945513 4:-0.922374 5:-1 6:-0.766143 7:-0.190476 8:-0.972154 9:-1 10:-1 11:-0.956129 12:-1 13:-1 14:-0.860941 15:-1 16:-0.957973 17:-0.938849 18:-1 19:-1 20:-0.855932 21:-1 
32768 1:-0.93047 2:-1 3:-1 4:-0.922374 5:-0.731225 6:-0.82199 7:-1 8:-0.972154 9:-0.961755 10:-0.874074 11:-1 12:-1 13:-1 14:-0.93047 15:-1 16:-0.957973 17:-0.938849 18:-1 19:-1 20:-0.711864 21:-0.831683 
32768 1:-1 2:-0.912258 3:-0.891026 4:-0.844749 5:-1 6:-0.940663 7:-1 8:-1 9:-1 10:-1 11:-1 12:-1 13:-1 14:-0.791411 15:-1 16:-1 17:-0.877698 18:-0.97247 19:-0.92887 20:-0.855932 21:-0.915842 
32768 1:-0.93047 2:-1 3:-1 4:-0.922374 5:-1 6:-0.82199 7:-1 8:-1 9:-1 10:-0.874074 11:-1 12:-1 13:-0.358491 14:-0.791411 15:-0.428571 16:-1 17:-1 18:-1 19:-0.92887 20:-1 21:-1 
20113.68836074511 1:-0.725971 2:-0.695484 3:-1 4:-0.922374 5:-0.470356 6:-1 7:-1 8:-0.944308 9:-0.811024 10:-0.125926 11:-0.607742 12:-1 13:-1 14:-0.447853 15:-1 16:-0.915946 17:-0.57554 18:-1 19:-0.786611 20:-0.144068 21:-0.915842 
32768 1:-0.93047 2:-1 3:-1 4:-1 5:-0.731225 6:-0.82199 7:-1 8:-0.972154 9:-1 10:-0.874074 11:-0.956129 12:-0.831683 13:-1 14:-0.791411 15:-1 16:-0.957973 17:-0.758993 18:-1 19:-0.857741 20:-0.855932 21:-0.747525 
32768 1:-0.93047 2:-1 3:-1 4:-0.767123 5:-1 6:-0.940663 7:-0.595238 8:-1 9:-1 10:-1 11:-1 12:-1 13:-1 14:-1 15:-1 16:-1 17:-0.877698 18:-1 19:-0.92887 20:-1 21:-1 
32768 1:-1 2:-1 3:-1 4:-0.922374 5:-0.865613 6:-1 7:-1 8:-0.944308 9:-0.92351 10:-1 11:-1 12:-1 13:-1 14:-0.93047 15:-1 16:-1 17:-1 18:-0.97247 19:-1 20:-0.855932 21:-1 
32768 1:-0.791411 2:-1 3:-0.945513 4:-0.844749 5:-1 6:-1 7:-1 8:-0.916462 9:-1 10:-1 11:-1 12:-0.663366 13:-0.358491 14:-0.586912 15:-1 16:-1 17:-1 18:-0.97247 19:-1 20:-0.855932 21:-0.915842 
32768 1:-1 2:-0.956129 3:-1 4:-1 5:-1 6:-1 7:-1 8:-1 9:-0.961755 10:-0.874074 11:-1 12:-1 13:-1 14:-1 15:-1 16:-1 17:-0.938849 18:-0.97247 19:-1 20:-0.855932 21:-1 
32768 1:-0.860941 2:-1 3:-1 4:-1 5:-1 6:-0.940663 7:-1 8:-0.972154 9:-1 10:-0.874074 11:-1 12:-0.663366 13:-1 14:-1 15:-1 16:-1 17:-0.938849 18:-0.97247 19:-0.92887 20:-1 21:-1 
32768 1:-1 2:-1 3:-0.945513 4:-0.922374 5:-0.865613 6:-0.940663 7:-1 8:-1 9:-0.961755 10:-0.748148 11:-0.956129 12:-1 13:-1 14:-1 15:-1 16:-1 17:-0.938849 18:-1 19:-0.857741 20:-1 21:-0.831683 
32768 1:-0.860941 2:-0.956129 3:-0.945513 4:-0.922374 5:-1 6:-0.82199 7:-1 8:-0.944308 9:-1 10:-1 11:-0.956129 12:-1 13:-1 14:-0.93047 15:-0.428571 16:-1 17:-1 18:-0.97247 19:-0.786611 20:-1 21:-0.915842 
32768 1:-0.93047 2:-0.912258 3:-0.891026 4:-0.922374 5:-1 6:-0.82199 7:-1 8:-1 9:-0.961755 10:-1 11:-0.912258 12:-1 13:-1 14:-0.93047 15:-1 16:-1 17:-1 18:-1 19:-0.92887 20:-0.855932 21:-1 
32768 1:-0.93047 2:-0.912258 3:-1 4:-1 5:-1 6:-0.940663 7:-1 8:-1 9:-0.961755 10:-1 11:-1 12:-1 13:-1 14:-0.93047 15:-1 16:-0.957973 17:-1 18:-1 19:-1 20:-0.855932 21:-1 
32768 1:-0.93047 2:-1 3:-1 4:-1 5:-1 6:-1 7:-1 8:-1 9:-1 10:-1 11:-1 12:-1 13:-1 14:-0.93047 15:-0.714286 16:-1 17:-1 18:-1 19:-1 20:-1 21:-0.831683 
32768 1:-0.791411 2:-1 3:-1 4:-0.767123 5:-1 6:-0.588133 7:-1 8:-1 9:-1 10:-0.874074 11:-1 12:-1 13:-1 14:-0.93047 15:-1 16:-0.957973 17:-1 18:-1 19:-0.92887 20:-0.855932 21:-0.915842 
32768 1:-0.791411 2:-0.868387 3:-0.945513 4:-0.767123 5:-0.731225 6:-1 7:-1 8:-0.972154 9:-0.961755 10:-0.503704 11:-0.912258 12:-0.663366 13:-1 14:-0.93047 15:-0.714286 16:-0.915946 17:-0.877698 18:-1 19:-0.92887 20:-0.855932 21:-0.831683 
32768 1:-0.725971 2:-0.739355 3:-0.945513 4:-0.461187 5:-0.865613 6:-0.706806 7:-0.190476 8:-0.972154 9:-0.92351 10:-0.251852 11:-0.739355 12:-0.663366 13:-1 14:-0.447853 15:-0.714286 16:-0.957973 17:-0.816547 18:-0.944939 19:-0.719665 20:-0.432203 21:-0.915842 
32768 1:-0.860941 2:-1 3:-1 4:-1 5:-1 6:-0.881326 7:-1 8:-0.972154 9:-1 10:-0.874074 11:-1 12:-1 13:-1 14:-0.860941 15:-0.142857 16:-1 17:-1 18:-0.97247 19:-0.857741 20:-1 21:-1 
32768 1:-0.93047 2:-0.912258 3:-1 4:-1 5:-1 6:-1 7:-1 8:-1 9:-1 10:-0.622222 11:-1 12:-1 13:-1 14:-0.860941 15:-1 16:-1 17:-0.938849 18:-1 19:-1 20:-0.855932 21:-0.915842 
32768 1:-0.725971 2:-0.912258 3:-1 4:-1 5:-1 6:-0.82199 7:-0.595238 8:-0.944308 9:-0.961755 10:-1 11:-0.912258 12:-1 13:-1 14:-0.725971 15:-1 16:-0.957973 17:-0.816547 18:-0.944939 19:-1 20:-0.855932 21:-0.915842 
32768 1:-0.860941 2:-0.827097 3:-0.785256 4:-0.616438 5:-0.596838 6:-0.647469 7:-0.190476 8:-0.834562 9:-0.849269 10:-0.503704 11:-0.783226 12:-0.336634 13:-1 14:-0.656442 15:-0.714286 16:-0.915946 17:-0.57554 18:-0.781377 19:-0.648536 20:-0.432203 21:-0.915842 
32768 1:-0.860941 2:-0.912258 3:-1 4:-0.922374 5:-1 6:-0.940663 7:-1 8:-0.972154 9:-0.961755 10:-0.874074 11:-0.956129 12:-0.831683 13:-1 14:-1 15:-1 16:-1 17:-1 18:-0.97247 19:-1 20:-0.711864 21:-1 
32768 1:-0.860941 2:-0.912258 3:-1 4:-0.922374 5:-1 6:-1 7:-1 8:-0.972154 9:-1 10:-1 11:-0.912258 12:-1 13:-1 14:-1 15:-0.428571 16:-0.957973 17:-0.938849 18:-1 19:-0.92887 20:-0.855932 21:-1 
32768 1:-0.93047 2:-0.956129 3:-0.945513 4:-1 5:-0.865613 6:-0.881326 7:-1 8:-1 9:-1 10:-0.748148 11:-0.912258 12:-1 13:-1 14:-0.791411 15:-1 16:-1 17:-0.877698 18:-0.944939 19:-1 20:-0.711864 21:-0.831683 
32768 1:-0.860941 2:-0.912258 3:-1 4:-0.844749 5:-0.731225 6:-0.940663 7:-0.595238 8:-1 9:-0.92351 10:-0.503704 11:-1 12:-0.831683 13:-1 14:-0.860941 15:-1 16:-0.957973 17:-0.877698 18:-0.97247 19:-0.719665 20:-0.855932 21:-1 
32768 1:-1 2:-1 3:-0.945513 4:-0.844749 5:-1 6:-1 7:-1 8:-1 9:-1 10:-0.874074 11:-0.956129 12:-1 13:-1 14:-0.93047 15:-1 16:-0.957973 17:-0.877698 18:-1 19:-1 20:-1 21:-1 
15902.89472070945 1:-0.725971 2:-0.912258 3:-0.945513 4:-1 5:-0.596838 6:-0.940663 7:-1 8:-0.944308 9:-0.961755 10:-0.622222 11:-0.868387 12:-0.831683 13:-0.358491 14:-0.447853 15:-0.714286 16:-0.957973 17:-0.758993 18:-0.944939 19:-0.92887 20:-0.855932 21:-0.831683 
32768 1:-0.791411 2:-0.868387 3:-0.785256 4:-0.694064 5:-0.731225 6:-0.881326 7:-1 8:-0.944308 9:-0.772778 10:-0.503704 11:-0.868387 12:-0.663366 13:-1 14:-0.517382 15:-0.142857 16:-1 17:-0.514388 18:-0.944939 19:-0.786611 20:-0.432203 21:-0.831683 
32768 1:-1 2:-1 3:-1 4:-1 5:-0.731225 6:-0.940663 7:-1 8:-0.972154 9:-1 10:-0.874074 11:-0.956129 12:-0.831683 13:-1 14:-0.860941 15:-1 16:-1 17:-1 18:-1 19:-0.92887 20:-0.855932 21:-0.915842 
32768 1:-0.93047 2:-0.912258 3:-1 4:-0.922374 5:-1 6:-1 7:-1 8:-0.972154 9:-1 10:-0.874074 11:-0.956129 12:-1 13:-1 14:-1 15:-1 16:-0.957973 17:-0.877698 18:-1 19:-1 20:-0.855932 21:-1 
8474.891927502727 1:-0.93047 2:-0.868387 3:-0.945513 4:-1 5:-0.596838 6:-0.940663 7:-1 8:-1 9:-1 10:-0.622222 11:-1 12:-0.831683 13:-1 14:-1 15:-0.142857 16:-1 17:-0.938849 18:-1 19:-0.92887 20:-0.711864 21:-0.915842 
32768 1:-0.656442 2:-0.956129 3:-0.836538 4:-0.844749 5:-1 6:-0.82199 7:-1 8:-0.972154 9:-0.92351 10:-0.748148 11:-0.956129 12:-0.663366 13:-1 14:-0.791411 15:-1 16:-0.957973 17:-0.758993 18:-1 19:-0.92887 20:-0.711864 21:-0.915842 
32768 1:-0.93047 2:-0.912258 3:-0.836538 4:-1 5:-1 6:-0.940663 7:-1 8:-0.972154 9:-0.961755 10:-0.748148 11:-1 12:-0.831683 13:-1 14:-0.93047 15:-0.428571 16:-1 17:-1 18:-0.97247 19:-0.857741 20:-1 21:-1 
32768 1:-0.791411 2:-0.956129 3:-1 4:-0.922374 5:-0.865613 6:-0.766143 7:-1 8:-1 9:-0.961755 10:-1 11:-1 12:-1 13:-1 14:-0.791411 15:-0.142857 16:-1 17:-1 18:-0.97247 19:-0.719665 20:-1 21:-0.915842 
32768 1:-0.860941 2:-0.695484 3:-0.891026 4:-0.305936 5:-0.335968 6:-0.588133 7:-0.595238 8:-0.944308 9:-0.885264 10:-1 11:-0.783226 12:-0.831683 13:-1 14:-0.243354 15:-0.714286 16:-0.915946 17:-0.334532 18:-0.891498 19:-0.857741 20:-0.432203 21:-0.831683 
32768 1:-0.93047 2:-1 3:-0.945513 4:-0.922374 5:-1 6:-0.82199 7:-1 8:-0.944308 9:-0.92351 10:-0.874074 11:-1 12:-1 13:-1 14:-0.93047 15:-1 16:-1 17:-0.816547 18:-0.97247 19:-1 20:-0.855932 21:-0.915842 
32768 1:-0.860941 2:-0.956129 3:-1 4:-0.922374 5:-0.731225 6:-0.940663 7:-1 8:-1 9:-0.961755 10:-1 11:-0.956129 12:-1 13:-1 14:-0.93047 15:-1 16:-1 17:-0.938849 18:-1 19:-0.857741 20:-0.855932 21:-1 
5661.406074023903 1:-0.656442 2:-0.827097 3:-1 4:-1 5:-0.731225 6:-0.82199 7:-1 8:-0.944308 9:-0.961755 10:-0.622222 11:-0.827097 12:-1 13:-1 14:-0.860941 15:-0.714286 16:-0.873918 17:-0.636691 18:-0.944939 19:-0.92887 20:-1 21:-0.831683 
32768 1:-1 2:-1 3:-1 4:-0.922374 5:-0.865613 6:-0.881326 7:-1 8:-0.944308 9:-0.885264 10:-1 11:-0.956129 12:-0.831683 13:-1 14:-1 15:-1 16:-1 17:-0.877698 18:-1 19:-1 20:-0.855932 21:-1 
32768 1:-1 2:-0.912258 3:-0.945513 4:-1 5:-1 6:-0.82199 7:-0.595238 8:-0.944308 9:-1 10:-1 11:-0.912258 12:-0.831683 13:-1 14:-0.860941 15:-1 16:-1 17:-1 18:-0.97247 19:-1 20:-1 21:-1 
32768 1:-0.93047 2:-0.956129 3:-0.945513 4:-0.844749 5:-1 6:-0.940663 7:-1 8:-1 9:-1 10:-1 11:-1 12:-0.831683 13:-1 14:-0.860941 15:-0.428571 16:-1 17:-1 18:-0.97247 19:-0.786611 20:-0.855932 21:-1 
32768 1:-1 2:-0.956129 3:-1 4:-1 5:-1 6:-1 7:-1 8:-1 9:-1 10:-0.874074 11:-0.956129 12:-1 13:-1 14:-1 15:-1 16:-1 17:-0.938849 18:-1 19:-1 20:-0.855932 21:-1 
32768 1:-0.791411 2:-1 3:-1 4:-1 5:-1 6:-0.881326 7:-1 8:-0.972154 9:-1 10:-1 11:-1 12:-0.831683 13:-0.358491 14:-0.860941 15:-0.714286 16:-0.957973 17:-0.938849 18:-1 19:-1 20:-0.855932 21:-1 
32768 1:-1 2:-0.912258 3:-1 4:-1 5:-0.731225 6:-0.881326 7:-1 8:-0.916462 9:-0.961755 10:-1 11:-0.868387 12:-0.49505 13:-0.358491 14:-0.656442 15:-1 16:-1 17:-0.877698 18:-0.917409 19:-0.857741 20:-0.567797 21:-0.915842 
32768 1:-0.860941 2:-1 3:-1 4:-1 5:-0.865613 6:-0.82199 7:-1 8:-0.972154 9:-1 10:-1 11:-1 12:-1 13:-1 14:-0.656442 15:-1 16:-1 17:-0.938849 18:-1 19:-0.92887 20:-1 21:-1 
32768 1:-0.93047 2:-0.912258 3:-1 4:-0.922374 5:-0.470356 6:-1 7:-0.595238 8:-1 9:-1 10:-0.748148 11:-0.783226 12:-1 13:-1 14:-0.93047 15:-0.428571 16:-0.957973 17:-0.877698 18:-1 19:-0.857741 20:-0.711864 21:-0.831683 
32768 1:-0.93047 2:-1 3:-1 4:-1 5:-0.865613 6:-0.940663 7:-1 8:-1 9:-0.92351 10:-1 11:-1 12:-0.663366 13:-0.358491 14:-1 15:-1 16:-1 17:-1 18:-1 19:-1 20:-1 21:-1 
32768 1:-1 2:-0.956129 3:-1 4:-1 5:-0.865613 6:-1 7:-1 8:-1 9:-0.961755 10:-1 11:-0.912258 12:-1 13:-1 14:-1 15:-1 16:-1 17:-1 18:-1 19:-1 20:-1 21:-1 
32768 1:-0.791411 2:-0.956129 3:-1 4:-1 5:-0.865613 6:-0.881326 7:-1 8:-1 9:-0.961755 10:-0.748148 11:-1 12:-1 13:-1 14:-0.860941 15:-0.714286 16:-0.957973 17:-0.938849 18:-0.944939 19:-1 20:-1 21:-0.915842 
32768 1:-0.93047 2:-1 3:-1 4:-1 5:-0.865613 6:-0.940663 7:-1 8:-1 9:-1 10:-0.874074 11:-1 12:-1 13:-0.358491 14:-1 15:-1 16:-1 17:-0.877698 18:-1 19:-1 20:-0.855932 21:-0.915842 
32768 1:-0.93047 2:-1 3:-1 4:-0.922374 5:-0.865613 6:-1 7:-0.595238 8:-0.972154 9:-1 10:-1 11:-1 12:-0.831683 13:-1 14:-1 15:-0.714286 16:-0.957973 17:-0.938849 18:-1 19:-0.92887 20:-0.855932 21:-1 
32768 1:-1 2:-0.912258 3:-0.945513 4:-0.844749 5:-0.731225 6:-0.82199 7:-1 8:-0.972154 9:-0.961755 10:-0.874074 11:-1 12:-1 13:-1 14:-1 15:-1 16:-1 17:-0.877698 18:-0.97247 19:-0.719665 20:-1 21:-0.915842 
32768 1:-1 2:-1 3:-1 4:-1 5:-0.731225 6:-0.940663 7:-1 8:-0.972154 9:-1 10:-0.622222 11:-0.956129 12:-1 13:-1 14:-0.725971 15:-1 16:-0.915946 17:-0.636691 18:-1 19:-0.786611 20:-0.567797 21:-1 
32768 1:-0.93047 2:-1 3:-0.945513 4:-1 5:-1 6:-0.881326 7:-1 8:-1 9:-1 10:-1 11:-1 12:-1 13:-1 14:-0.860941 15:-1 16:-1 17:-0.938849 18:-1 19:-1 20:-1 21:-1 
32768 1:-0.860941 2:-1 3:-1 4:-0.922374 5:-1 6:-1 7:-1 8:-1 9:-0.961755 10:-0.874074 11:-1 12:-1 13:-1 14:-0.860941 15:-1 16:-1 17:-1 18:-1 19:-1 20:-0.855932 21:-0.831683 
32768 1:-0.656442 2:-0.912258 3:-0.891026 4:-0.922374 5:-0.865613 6:-0.940663 7:-0.595238 8:-0.944308 9:-1 10:-0.748148 11:-0.956129 12:-0.831683 13:-1 14:-0.656442 15:-1 16:-1 17:-0.877698 18:-0.917409 19:-1 20:-1 21:-1 
32768 1:-1 2:-0.956129 3:-1 4:-1 5:-1 6:-1 7:-1 8:-1 9:-1 10:-1 11:-1 12:-0.831683 13:-0.358491 14:-0.93047 15:-0.714286 16:-1 17:-1 18:-1 19:-1 20:-0.855932 21:-1 
32768 1:-0.93047 2:-0.912258 3:-0.945513 4:-0.767123 5:-0.731225 6:-0.528796 7:-0.595238 8:-0.944308 9:-0.811024 10:-0.748148 11:-0.868387 12:-0.663366 13:-1 14:-1 15:-1 16:-0.915946 17:-0.877698 18:-0.97247 19:-0.786611 20:-0.567797 21:-0.831683 
17758.22252576056 1:-0.517382 2:-0.912258 3:-1 4:-0.767123 5:-0.470356 6:-0.766143 7:-0.190476 8:-0.944308 9:-0.885264 10:-1 11:-0.912258 12:-0.663366 13:-1 14:-0.93047 15:-0.428571 16:-1 17:-0.877698 18:-0.97247 19:-0.857741 20:-0.855932 21:-0.915842 
32768 1:-0.725971 2:-0.827097 3:-1 4:-1 5:-0.731225 6:-0.82199 7:-1 8:-1 9:-1 10:-0.874074 11:-0.956129 12:-1 13:-1 14:-0.791411 15:-0.428571 16:-1 17:-0.877698 18:-1 19:-0.857741 20:-0.855932 21:-0.831683 
32768 1:-0.93047 2:-0.956129 3:-1 4:-0.922374 5:-0.865613 6:-1 7:-1 8:-1 9:-1 10:-1 11:-0.912258 12:-0.831683 13:-1 14:-1 15:-1 16:-1 17:-0.938849 18:-0.944939 19:-1 20:-1 21:-1 
32768 1:-1 2:-1 3:-0.945513 4:-0.922374 5:-1 6:-1 7:-0.595238 8:-1 9:-0.92351 10:-1 11:-1 12:-1 13:-1 14:-1 15:-1 16:-1 17:-1 18:-0.97247 19:-1 20:-1 21:-1 
32768 1:-0.725971 2:-0.956129 3:-1 4:-0.767123 5:-1 6:-0.940663 7:-1 8:-0.944308 9:-0.92351 10:-0.874074 11:-0.739355 12:-1 13:-1 14:-0.860941 15:-1 16:-1 17:-0.816547 18:-0.917409 19:-0.857741 20:-0.711864 21:-1 
32768 1:-1 2:-0.912258 3:-1 4:-1 5:-1 6:-0.940663 7:-1 8:-0.972154 9:-0.961755 10:-1 11:-0.956129 12:-0.831683 13:-1 14:-0.860941 15:-1 16:-0.957973 17:-0.938849 18:-0.97247 19:-0.92887 20:-1 21:-0.915842 
32768 1:-1 2:-0.956129 3:-1 4:-1 5:-0.865613 6:-0.940663 7:-1 8:-1 9:-1 10:-1 11:-1 12:-1 13:-1 14:-1 15:-1 16:-1 17:-0.877698 18:-1 19:-0.857741 20:-1 21:-0.915842 
32768 1:-0.860941 2:-1 3:-1 4:-0.922374 5:-0.731225 6:-0.940663 7:-1 8:-0.944308 9:-0.961755 10:-1 11:-0.912258 12:-1 13:-1 14:-1 15:-1 16:-1 17:-1 18:-1 19:-0.857741 20:-1 21:-0.915842 
32768 1:-0.725971 2:-0.956129 3:-0.945513 4:-1 5:-1 6:-0.410122 7:-0.595238 8:-0.944308 9:-0.92351 10:-1 11:-1 12:-1 13:-1 14:-0.0347648 15:-1 16:-1 17:-0.877698 18:-1 19:-0.92887 20:-0.855932 21:-0.831683 
32768 1:-0.860941 2:-0.739355 3:-1 4:-1 5:-0.865613 6:-0.766143 7:-0.190476 8:-0.972154 9:-1 10:-0.377778 11:-0.47871 12:-1 13:-1 14:-0.791411 15:-1 16:-1 17:-0.877698 18:-0.97247 19:-0.786611 20:-0.711864 21:-0.915842 
12565.36363041167 1:-0.656442 2:-0.303226 3:-0.945513 4:-0.922374 5:0.335968 6:-0.82199 7:-1 8:-0.944308 9:-0.885264 10:-1 11:-0.47871 12:-0.663366 13:-1 14:-0.586912 15:-1 16:-0.834363 17:-0.453237 18:-0.891498 19:-0.786611 20:-0.432203 21:-0.747525 
32768 1:-0.860941 2:-0.956129 3:-0.891026 4:-0.844749 5:-0.335968 6:-0.528796 7:-0.190476 8:-0.890254 9:-0.92351 10:-0.874074 11:-0.956129 12:-0.663366 13:-1 14:-0.586912 15:-0.714286 16:-0.957973 17:-1 18:-0.944939 19:-1 20:-1 21:-0.747525 
32768 1:-0.860941 2:-1 3:-0.945513 4:-0.694064 5:-0.865613 6:-0.647469 7:-1 8:-0.972154 9:-1 10:-1 11:-1 12:-1 13:-1 14:-0.860941 15:-1 16:-0.873918 17:-1 18:-1 19:-0.857741 20:-0.711864 21:-0.915842 
32768 1:-1 2:-0.956129 3:-1 4:-1 5:-0.865613 6:-1 7:-0.595238 8:-0.972154 9:-1 10:-0.748148 11:-0.868387 12:-0.831683 13:-0.358491 14:-1 15:-1 16:-0.873918 17:-0.697842 18:-1 19:-1 20:-1 21:-0.831683 
32768 1:-1 2:-1 3:-1 4:-1 5:-0.865613 6:-1 7:-1 8:-1 9:-1 10:-0.874074 11:-1 12:-0.831683 13:-1 14:-1 15:-1 16:-1 17:-0.816547 18:-0.97247 19:-1 20:-1 21:-1 
32768 1:-0.93047 2:-0.956129 3:-0.945513 4:-0.844749 5:-0.596838 6:-0.881326 7:-0.595238 8:-0.944308 9:-0.92351 10:-1 11:-0.956129 12:-1 13:-1 14:-0.93047 15:-1 16:-0.957973 17:-0.938849 18:-0.891498 19:-1 20:-0.567797 21:-0.831683 
32768 1:-1 2:-0.956129 3:-0.945513 4:-0.922374 5:-0.865613 6:-1 7:-1 8:-1 9:-1 10:-1 11:-1 12:-1 13:-1 14:-1 15:-1 16:-1 17:-0.816547 18:-0.944939 19:-0.857741 20:-0.855932 21:-0.915842 
32768 1:-1 2:-1 3:-1 4:-0.844749 5:-1 6:-0.940663 7:-0.190476 8:-0.972154 9:-1 10:-1 11:-1 12:-0.831683 13:-1 14:-0.791411 15:-1 16:-0.957973 17:-1 18:-1 19:-1 20:-1 21:-1 
32768 1:-0.791411 2:-0.956129 3:-0.945513 4:-0.922374 5:-1 6:-0.766143 7:-1 8:-1 9:-0.961755 10:-0.874074 11:-0.912258 12:-1 13:-1 14:-0.656442 15:-1 16:-1 17:-0.877698 18:-0.97247 19:-0.719665 20:-0.855932 21:-0.915842 
32768 1:-0.93047 2:-1 3:-1 4:-0.922374 5:-0.865613 6:-0.766143 7:-1 8:-1 9:-0.849269 10:-1 11:-0.783226 12:-0.831683 13:-1 14:-1 15:-1 16:-1 17:-0.938849 18:-0.97247 19:-0.719665 20:-1 21:-0.915842 
32768 1:-0.93047 2:-0.912258 3:-1 4:-0.922374 5:-0.596838 6:-1 7:-0.595238 8:-0.972154 9:-1 10:-1 11:-1 12:-0.831683 13:-1 14:-0.93047 15:-0.428571 16:-0.915946 17:-0.877698 18:-0.97247 19:-1 20:-0.567797 21:-0.915842 
32768 1:-0.791411 2:-0.956129 3:-0.945513 4:-0.922374 5:-0.731225 6:-0.881326 7:-1 8:-0.890254 9:-0.961755 10:-0.874074 11:-0.956129 12:-0.831683 13:-1 14:-0.860941 15:-1 16:-0.957973 17:-0.758993 18:-0.97247 19:-0.648536 20:-1 21:-0.831683 
32768 1:-1 2:-0.956129 3:-0.945513 4:-1 5:-1 6:-1 7:-1 8:-1 9:-1 10:-1 11:-1 12:-1 13:-1 14:-1 15:-0.714286 16:-0.957973 17:-1 18:-0.97247 19:-1 20:-0.855932 21:-1 
32768 1:-1 2:-0.956129 3:-1 4:-1 5:-0.865613 6:-0.940663 7:-1 8:-0.972154 9:-1 10:-1 11:-0.912258 12:-0.831683 13:-1 14:-0.93047 15:-1 16:-1 17:-0.877698 18:-1 19:-0.92887 20:-1 21:-1 
32768 1:-0.791411 2:-0.912258 3:-0.945513 4:-1 5:-0.731225 6:-0.766143 7:-1 8:-0.944308 9:-0.92351 10:-0.503704 11:-0.956129 12:-0.831683 13:-1 14:-0.791411 15:-1 16:-0.957973 17:-0.758993 18:-0.97247 19:-1 20:-0.711864 21:-0.915842 
32768 1:-0.860941 2:-0.956129 3:-0.945513 4:-0.844749 5:-1 6:-0.940663 7:-1 8:-0.944308 9:-1 10:-1 11:-1 12:-1 13:-1 14:-0.656442 15:-0.428571 16:-1 17:-1 18:-0.97247 19:-0.857741 20:-1 21:-0.915842 
32768 1:-0.93047 2:-0.956129 3:-0.945513 4:-1 5:-1 6:-0.881326 7:-1 8:-1 9:-1 10:-0.874074 11:-0.956129 12:-1 13:-1 14:-0.93047 15:-1 16:-1 17:-0.938849 18:-1 19:-0.92887 20:-0.711864 21:-0.915842 
32768 1:-1 2:-0.912258 3:-1 4:-1 5:-0.596838 6:-0.881326 7:-1 8:-0.944308 9:-0.961755 10:-1 11:-0.783226 12:-1 13:-0.358491 14:-0.791411 15:-1 16:-0.915946 17:-0.636691 18:-0.944939 19:-0.786611 20:-1 21:-0.915842 
32768 1:-0.93047 2:-1 3:-1 4:-1 5:-0.865613 6:-0.82199 7:-1 8:-1 9:-0.92351 10:-1 11:-0.912258 12:-0.49505 13:-1 14:-0.93047 15:-1 16:-1 17:-0.938849 18:-0.97247 19:-1 20:-0.855932 21:-1 
32768 1:-0.93047 2:-0.912258 3:-1 4:-1 5:-0.731225 6:-0.881326 7:-0.595238 8:-0.944308 9:-1 10:-0.874074 11:-0.827097 12:-1 13:-0.358491 14:-0.656442 15:-0.714286 16:-0.915946 17:-0.697842 18:-1 19:-0.857741 20:-1 21:-1 
32768 1:-0.860941 2:-1 3:-0.945513 4:-1 5:-1 6:-1 7:-0.595238 8:-1 9:-0.961755 10:-0.874074 11:-1 12:-1 13:-1 14:-0.860941 15:-1 16:-1 17:-1 18:-0.97247 19:-1 20:-1 21:-1 
32768 1:-0.93047 2:-0.956129 3:-0.945513 4:-0.922374 5:-1 6:-1 7:-0.595238 8:-1 9:-0.961755 10:-0.874074 11:-1 12:-0.831683 13:-1 14:-0.860941 15:-1 16:-1 17:-1 18:-0.97247 19:-1 20:-1 21:-0.915842 
32768 1:-0.860941 2:-0.956129 3:-0.836538 4:-1 5:-1 6:-1 7:-0.595238 8:-0.862408 9:-0.961755 10:-0.622222 11:-1 12:-1 13:-1 14:-1 15:-1 16:-1 17:-0.816547 18:-0.891498 19:-1 20:-0.855932 21:-1 
32768 1:-0.93047 2:-1 3:-1 4:-1 5:-1 6:-0.940663 7:-1 8:-0.972154 9:-0.961755 10:-0.874074 11:-0.956129 12:-1 13:-0.358491 14:-1 15:-0.714286 16:-0.957973 17:-0.877698 18:-1 19:-0.92887 20:-0.855932 21:-1 
32768 1:-0.93047 2:-1 3:-0.945513 4:-1 5:-0.865613 6:-0.940663 7:-0.595238 8:-1 9:-1 10:-0.748148 11:-1 12:-1 13:-0.358491 14:-0.93047 15:-1 16:-1 17:-0.938849 18:-0.97247 19:-1 20:-1 21:-1 
19794.94233963056 1:-0.93047 2:-0.827097 3:-0.945513 4:-0.767123 5:-0.865613 6:-0.766143 7:-1 8:-0.944308 9:-0.811024 10:-0.748148 11:-0.912258 12:-0.663366 13:-0.358491 14:-0.791411 15:-1 16:-1 17:-0.938849 18:-0.97247 19:-0.857741 20:-0.567797 21:-0.915842 
22620.91871714474 1:-1 2:-0.303226 3:-1 4:-0.922374 5:-0.596838 6:-0.940663 7:-0.595238 8:-0.972154 9:-0.961755 10:-1 11:-0.347097 12:-1 13:0.283019 14:-0.860941 15:-1 16:-1 17:-1 18:-1 19:-0.857741 20:-0.288136 21:-1 
32768 1:-0.725971 2:-0.956129 3:-0.945513 4:-0.844749 5:-1 6:-0.940663 7:-1 8:-0.944308 9:-0.961755 10:-0.874074 11:-0.956129 12:-0.831683 13:-1 14:-0.860941 15:-1 16:-0.915946 17:-0.697842 18:-0.944939 19:-0.92887 20:-1 21:-0.831683 
32768 1:-0.791411 2:-0.783226 3:-0.730769 4:-0.844749 5:-0.731225 6:-0.82199 7:-1 8:-0.890254 9:-0.849269 10:-0.748148 11:-0.912258 12:-0.663366 13:-1 14:-0.791411 15:-0.428571 16:-1 17:-0.697842 18:-0.97247 19:-0.786611 20:-1 21:-0.668317 
32768 1:-0.447853 2:-0.695484 3:-0.836538 4:-0.844749 5:-0.596838 6:-0.881326 7:-0.190476 8:-0.862408 9:-0.772778 10:-0.251852 11:-0.739355 12:-1 13:-1 14:-0.656442 15:-1 16:-1 17:-0.636691 18:-0.917409 19:-0.719665 20:-0.567797 21:-0.668317 
32768 1:-1 2:-0.912258 3:-0.945513 4:-1 5:-0.865613 6:-1 7:-1 8:-0.944308 9:-1 10:-0.874074 11:-0.783226 12:-1 13:-1 14:-1 15:-1 16:-1 17:-0.938849 18:-0.97247 19:-0.857741 20:-0.855932 21:-1 
32768 1:-0.93047 2:-0.956129 3:-1 4:-1 5:-1 6:-0.706806 7:-1 8:-1 9:-0.92351 10:-0.874074 11:-1 12:-1 13:-1 14:-0.725971 15:-0.714286 16:-1 17:-1 18:-0.97247 19:-0.857741 20:-1 21:-0.915842 
32768 1:-0.860941 2:-1 3:-1 4:-1 5:-1 6:-0.940663 7:-1 8:-1 9:-0.961755 10:-1 11:-1 12:-1 13:-1 14:-0.93047 15:-1 16:-1 17:-1 18:-1 19:-1 20:-1 21:-1 
32768 1:-0.791411 2:-1 3:-0.891026 4:-1 5:-0.731225 6:-1 7:-1 8:-0.972154 9:-0.961755 10:-1 11:-0.956129 12:-1 13:-1 14:-1 15:-1 16:-1 17:-0.938849 18:-1 19:-0.857741 20:-1 21:-1 
32768 1:-0.93047 2:-1 3:-1 4:-0.922374 5:-1 6:-1 7:-1 8:-1 9:-0.961755 10:-1 11:-1 12:-1 13:-1 14:-0.93047 15:-1 16:-0.957973 17:-1 18:-0.944939 19:-1 20:-1 21:-0.915842 
32768 1:-0.860941 2:-0.912258 3:-1 4:-1 5:-1 6:-0.706806 7:-1 8:-0.944308 9:-0.92351 10:-0.748148 11:-1 12:-1 13:-1 14:-1 15:-1 16:-1 17:-0.877698 18:-0.97247 19:-1 20:-0.855932 21:-0.915842 
32768 1:-0.93047 2:-1 3:-1 4:-0.922374 5:-1 6:-0.940663 7:-1 8:-1 9:-1 10:-1 11:-1 12:-1 13:-1 14:-0.93047 15:-1 16:-1 17:-1 18:-1 19:-0.92887 20:-1 21:-0.915842 
32768 1:-0.93047 2:-1 3:-1 4:-1 5:-0.865613 6:-0.940663 7:-1 8:-0.972154 9:-1 10:-0.874074 11:-1 12:-1 13:-1 14:-0.93047 15:-1 16:-1 17:-0.938849 18:-1 19:-1 20:-1 21:-1 
32768 1:-0.93047 2:-0.695484 3:-0.836538 4:-0.922374 5:-0.865613 6:-0.82199 7:-1 8:-0.972154 9:-0.92351 10:-1 11:-0.912258 12:-0.49505 13:-1 14:-0.93047 15:-0.714286 16:-0.915946 17:-0.877698 18:-1 19:-0.857741 20:-0.711864 21:-0.915842 
32768 1:-0.93047 2:-1 3:-0.945513 4:-1 5:-1 6:-1 7:-1 8:-1 9:-1 10:-1 11:-0.956129 12:-1 13:-1 14:-0.93047 15:-1 16:-1 17:-1 18:-1 19:-0.92887 20:-1 21:-1 
32768 1:-0.860941 2:-0.956129 3:-0.891026 4:-1 5:-1 6:-0.940663 7:-1 8:-0.972154 9:-1 10:-0.748148 11:-0.956129 12:-1 13:-1 14:-0.791411 15:-1 16:-1 17:-0.877698 18:-0.944939 19:-0.857741 20:-0.855932 21:-0.915842 
32768 1:-0.93047 2:-1 3:-1 4:-1 5:-1 6:-1 7:-1 8:-1 9:-0.961755 10:-1 11:-1 12:-1 13:-1 14:-1 15:-0.714286 16:-1 17:-0.938849 18:-1 19:-1 20:-1 21:-1 
32768 1:-0.860941 2:-0.868387 3:-1 4:-0.922374 5:-0.596838 6:-0.706806 7:-1 8:-0.972154 9:-1 10:-0.874074 11:-0.827097 12:-0.831683 13:-1 14:-0.378323 15:-0.714286 16:-0.957973 17:-0.57554 18:-0.97247 19:-0.786611 20:-0.567797 21:-0.831683 
32768 1:-0.791411 2:-0.390968 3:-1 4:-0.922374 5:0.865613 6:-0.881326 7:-1 8:-1 9:-0.92351 10:-0.874074 11:-0.434839 12:-1 13:-1 14:-0.860941 15:-1 16:-0.666255 17:-0.697842 18:-0.97247 19:-0.719665 20:-0.288136 21:-0.831683 
32768 1:-0.93047 2:-1 3:-0.945513 4:-0.922374 5:-1 6:-0.940663 7:-1 8:-0.944308 9:-0.961755 10:-0.874074 11:-0.956129 12:-1 13:-1 14:-0.93047 15:-1 16:-1 17:-0.877698 18:-0.944939 19:-1 20:-0.855932 21:-1 
32768 1:-1 2:-0.956129 3:-1 4:-1 5:-1 6:-1 7:-1 8:-1 9:-1 10:-1 11:-0.912258 12:-1 13:-1 14:-1 15:-0.714286 16:-0.957973 17:-1 18:-1 19:-0.92887 20:-0.855932 21:-1 
32768 1:-0.93047 2:-0.868387 3:-0.945513 4:-0.844749 5:-1 6:-1 7:-1 8:-1 9:-1 10:-1 11:-1 12:-1 13:-1 14:-0.93047 15:-0.714286 16:-1 17:-0.938849 18:-1 19:-1 20:-1 21:-1 
32768 1:-1 2:-1 3:-1 4:-1 5:-0.865613 6:-1 7:-1 8:-1 9:-1 10:-1 11:-1 12:-1 13:-1 14:-1 15:-1 16:-0.957973 17:-1 18:-1 19:-1 20:-1 21:-0.915842 
32768 1:-0.791411 2:-0.912258 3:-1 4:-0.922374 5:-1 6:-0.881326 7:-0.595238 8:-1 9:-1 10:-0.874074 11:-1 12:-0.831683 13:-1 14:-1 15:-0.714286 16:-1 17:-0.877698 18:-1 19:-0.92887 20:-0.855932 21:-1 
32768 1:-0.93047 2:-1 3:-0.945513 4:-1 5:-0.731225 6:-0.940663 7:-1 8:-1 9:-0.961755 10:-1 11:-0.956129 12:-0.663366 13:-0.358491 14:-0.93047 15:-1 16:-1 17:-0.816547 18:-0.944939 19:-0.857741 20:-1 21:-0.915842 
32768 1:-0.725971 2:-1 3:-0.785256 4:-0.922374 5:-0.731225 6:-1 7:-0.595238 8:-0.890254 9:-0.849269 10:-0.748148 11:-0.912258 12:-1 13:-1 14:-0.791411 15:-1 16:-0.957973 17:-0.816547 18:-0.97247 19:-0.786611 20:-0.432203 21:-0.747525 
32768 1:-0.860941 2:-0.912258 3:-0.785256 4:-0.538813 5:-1 6:-0.82199 7:-0.595238 8:-0.834562 9:-0.885264 10:-0.874074 11:-1 12:-1 13:-0.358491 14:-0.860941 15:-0.428571 16:-1 17:-0.816547 18:-0.97247 19:-0.786611 20:-0.567797 21:-0.915842 
32768 1:-1 2:-0.912258 3:-0.945513 4:-0.922374 5:-0.865613 6:-1 7:-1 8:-0.972154 9:-0.92351 10:-0.874074 11:-1 12:-1 13:-1 14:-0.93047 15:-1 16:-1 17:-1 18:-1 19:-1 20:-0.711864 21:-0.915842 
32768 1:-1 2:-1 3:-1 4:-0.922374 5:-1 6:-1 7:-1 8:-0.944308 9:-1 10:-1 11:-1 12:-1 13:-1 14:-0.791411 15:-1 16:-0.957973 17:-0.938849 18:-1 19:-0.857741 20:-0.855932 21:-1 
32768 1:-0.93047 2:-1 3:-1 4:-1 5:-1 6:-1 7:-0.595238 8:-1 9:-0.961755 10:-1 11:-0.956129 12:-0.831683 13:-1 14:-0.791411 15:-1 16:-1 17:-0.938849 18:-1 19:-1 20:-0.855932 21:-1 
32768 1:-0.656442 2:-1 3:-0.891026 4:-0.767123 5:-0.865613 6:-0.881326 7:-1 8:-0.890254 9:-0.849269 10:-0.748148 11:-0.912258 12:-1 13:-1 14:-0.860941 15:-1 16:-1 17:-0.938849 18:-0.97247 19:-1 20:-0.567797 21:-0.831683 
-32768 1:-0.94683 2:-1 3:-1 4:-1 5:-1 6:-1 7:-0.690476 8:-1 9:-0.970754 10:-1 11:-1 12:-1 13:-1 14:-0.94683 15:-1 16:-1 17:-0.953237 18:-1 19:-1 20:-1 21:-1 
-32768 1:-0.619632 2:-0.589677 3:-0.701923 4:-0.757991 5:-0.367589 6:-0.535777 7:-1 8:-0.93448 9:-0.851519 10:-0.214815 11:-0.553548 12:-0.475248 13:-1 14:-0.456033 15:-0.546218 16:-0.737948 17:-0.428058 18:-0.956275 19:-0.556485 20:-0.101695 21:-0.475248 
-32768 1:-1 2:-1 3:-1 4:-1 5:-1 6:-1 7:-1 8:-1 9:-0.970754 10:-1 11:-1 12:-1 13:-1 14:-1 15:-1 16:-1 17:-1 18:-1 19:-1 20:-0.889831 21:-1 
-32768 1:-1 2:-1 3:-1 4:-1 5:-1 6:-1 7:-1 8:-1 9:-1 10:-1 11:-1 12:-1 13:-1 14:-1 15:-1 16:-1 17:-0.953237 18:-0.978947 19:-0.945607 20:-1 21:-1 
-32768 1:-0.730061 2:-0.829677 3:-0.958333 4:-1 5:-0.786561 6:-0.905759 7:-1 8:-1 9:-0.970754 10:-1 11:-0.863226 12:-1 13:-1 14:-0.836401 15:-1 16:-0.967862 17:-0.76259 18:-0.978947 19:-1 20:-0.771186 21:-0.935644 
-32768 1:-0.836401 2:-0.930323 3:-1 4:-0.876712 5:-0.786561 6:-0.954625 7:-0.690476 8:-1 9:-0.939258 10:-0.607407 11:-1 12:-0.871287 13:-1 14:-0.889571 15:-1 16:-0.967862 17:-0.902878 18:-0.978947 19:-0.778243 20:-0.889831 21:-1 
-32768 1:-1 2:-1 3:-1 4:-1 5:-1 6:-1 7:-1 8:-1 9:-0.939258 10:-0.903704 11:-1 12:-1 13:-1 14:-1 15:-1 16:-1 17:-1 18:-1 19:-0.945607 20:-1 21:-1 
-6690.178064149329 1:-1 2:-0.966452 3:-1 4:-0.817352 5:-1 6:-1 7:-1 8:-0.978706 9:-0.970754 10:-1 11:-1 12:-1 13:-1 14:-1 15:-1 16:-1 17:-0.902878 18:-1 19:-1 20:-1 21:-1 
-32768 1:-0.94683 2:-1 3:-1 4:-1 5:-1 6:-0.954625 7:-0.690476 8:-1 9:-1 10:-1 11:-0.930323 12:-0.871287 13:-1 14:-1 15:-1 16:-1 17:-1 18:-1 19:-1 20:-1 21:-1 
-32768 1:-1 2:-0.930323 3:-1 4:-1 5:-1 6:-0.954625 7:-1 8:-1 9:-1 10:-1 11:-1 12:-1 13:-1 14:-1 15:-1 16:-1 17:-0.902878 18:-0.978947 19:-1 20:-1 21:-0.935644 
-32768 1:-0.889571 2:-0.966452 3:-0.958333 4:-1 5:-0.683794 6:-0.954625 7:-0.690476 8:-1 9:-1 10:-1 11:-0.966452 12:-1 13:-1 14:-0.94683 15:-1 16:-1 17:-1 18:-0.978947 19:-1 20:-0.889831 21:-0.935644 
-32768 1:-1 2:-0.966452 3:-0.958333 4:-1 5:-1 6:-1 7:-1 8:-0.978706 9:-0.939258 10:-1 11:-0.966452 12:-1 13:-1 14:-1 15:-1 16:-1 17:-1 18:-1 19:-1 20:-1 21:-0.866337 
-32768 1:-1 2:-1 3:-0.958333 4:-0.876712 5:-1 6:-1 7:-1 8:-1 9:-1 10:-1 11:-1 12:-1 13:-1 14:-1 15:-1 16:-1 17:-1 18:-1 19:-1 20:-1 21:-0.935644 
-32768 1:-1 2:-1 3:-1 4:-1 5:-1 6:-0.905759 7:-1 8:-1 9:-1 10:-0.903704 11:-1 12:-1 13:-1 14:-1 15:-1 16:-1 17:-1 18:-1 19:-1 20:-1 21:-1 
-32768 1:-0.783231 2:-0.966452 3:-1 4:-0.817352 5:-1 6:-0.954625 7:-1 8:-0.955774 9:-0.939258 10:-0.903704 11:-0.793548 12:-0.871287 13:-1 14:-0.889571 15:-1 16:-1 17:-0.856115 18:-0.935223 19:-0.887029 20:-0.771186 21:-1 
-32768 1:-0.94683 2:-0.930323 3:-1 4:-0.940639 5:-1 6:-1 7:-1 8:-1 9:-1 10:-1 11:-0.966452 12:-0.871287 13:-1 14:-0.94683 15:-0.781513 16:-1 17:-1 18:-0.978947 19:-0.832636 20:-0.889831 21:-1 
-32768 1:-1 2:-0.930323 3:-0.958333 4:-0.757991 5:-0.683794 6:-0.860384 7:-1 8:-0.955774 9:-0.939258 10:-1 11:-0.930323 12:-0.871287 13:-1 14:-0.672802 15:-1 16:-0.967862 17:-0.953237 18:-1 19:-0.945607 20:-0.771186 21:-0.935644 
-32768 1:-1 2:-0.930323 3:-1 4:-0.940639 5:-1 6:-1 7:-0.690476 8:-1 9:-0.939258 10:-0.8 11:-1 12:-1 13:-1 14:-0.889571 15:-1 16:-1 17:-0.856115 18:-1 19:-1 20:-1 21:-1 
-32768 1:-1 2:-0.966452 3:-1 4:-1 5:-1 6:-0.905759 7:-1 8:-1 9:-1 10:-1 11:-1 12:-1 13:-1 14:-1 15:-1 16:-1 17:-0.856115 18:-1 19:-1 20:-0.889831 21:-1 
-32768 1:-1 2:-0.966452 3:-0.958333 4:-0.940639 5:-0.897233 6:-1 7:-0.357143 8:-0.93448 9:-0.970754 10:-1 11:-0.966452 12:-1 13:-0.509434 14:-1 15:-1 16:-1 17:-0.902878 18:-0.893117 19:-0.945607 20:-0.661017 21:-1 
-32768 1:-1 2:-0.966452 3:-1 4:-0.940639 5:-0.897233 6:-0.860384 7:-0.690476 8:-0.978706 9:-1 10:-1 11:-0.966452 12:-1 13:-0.509434 14:-1 15:-0.781513 16:-0.967862 17:-0.902878 18:-1 19:-1 20:-1 21:-1 
-32768 1:-0.619632 2:-1 3:-1 4:-0.940639 5:-0.683794 6:-0.860384 7:-1 8:-0.913186 9:-1 10:-0.903704 11:-0.966452 12:-0.871287 13:-0.509434 14:-0.783231 15:-0.781513 16:-0.901112 17:-0.953237 18:-0.956275 19:-1 20:-1 21:-0.866337 
-32768 1:-0.94683 2:-0.623226 3:-0.958333 4:-0.757991 5:-0.478261 6:-0.720768 7:-0.690476 8:-0.891892 9:-0.880765 10:-0.311111 11:-0.656774 12:-1 13:-0.509434 14:-0.836401 15:-1 16:-0.933251 17:-0.47482 18:-0.893117 19:-0.723849 20:-0.661017 21:-0.673267 
-32768 1:-0.94683 2:-1 3:-0.958333 4:-1 5:-1 6:-1 7:-0.690476 8:-1 9:-1 10:-0.903704 11:-1 12:-1 13:-1 14:-0.889571 15:-1 16:-1 17:-1 18:-0.956275 19:-1 20:-1 21:-0.935644 
-32768 1:-0.94683 2:-1 3:-0.958333 4:-0.876712 5:-0.786561 6:-0.954625 7:-0.690476 8:-0.955774 9:-1 10:-1 11:-0.930323 12:-1 13:-1 14:-0.889571 15:-1 16:-1 17:-0.809353 18:-1 19:-1 20:-0.889831 21:-1 
-32768 1:-0.889571 2:-0.76 3:-0.871795 4:-0.940639 5:-0.478261 6:-0.815009 7:-0.357143 8:-0.955774 9:-0.910011 10:-0.703704 11:-0.793548 12:-0.732673 13:-0.509434 14:-0.783231 15:-1 16:-0.933251 17:-0.71223 18:-0.893117 19:-0.665272 20:-0.550847 21:-0.935644 
-32768 1:-0.456033 2:-0.793548 3:-0.830128 4:-0.634703 5:0.0513834 6:-0.535777 7:-1 8:-0.978706 9:-0.910011 10:-0.8 11:-0.553548 12:-0.475248 13:-0.509434 14:-0.619632 15:-0.546218 16:-0.901112 17:-0.665468 18:-0.956275 19:-0.723849 20:-0.440678 21:-0.866337 
-32768 1:-0.889571 2:-0.930323 3:-1 4:-0.940639 5:-0.897233 6:-0.954625 7:-1 8:-0.93448 9:-1 10:-0.903704 11:-0.930323 12:-1 13:-1 14:-0.889571 15:-0.781513 16:-1 17:-0.856115 18:-0.978947 19:-1 20:-1 21:-1 
-32768 1:-0.889571 2:-1 3:-1 4:-0.940639 5:-1 6:-0.954625 7:-1 8:-1 9:-0.970754 10:-0.903704 11:-0.966452 12:-1 13:-1 14:-0.889571 15:-0.781513 16:-1 17:-0.953237 18:-0.978947 19:-0.887029 20:-0.889831 21:-1 
-32768 1:-0.94683 2:-1 3:-0.958333 4:-0.876712 5:-0.897233 6:-0.905759 7:-0.690476 8:-0.978706 9:-1 10:-0.903704 11:-1 12:-1 13:-1 14:-0.94683 15:-1 16:-0.967862 17:-1 18:-0.978947 19:-1 20:-0.889831 21:-0.935644 
-32768 1:-1 2:-0.966452 3:-0.958333 4:-1 5:-1 6:-1 7:-1 8:-1 9:-0.939258 10:-0.903704 11:-1 12:-0.871287 13:-1 14:-0.94683 15:-1 16:-1 17:-1 18:-1 19:-1 20:-1 21:-0.935644 
-32768 1:-0.836401 2:-1 3:-1 4:-1 5:-1 6:-0.954625 7:-1 8:-1 9:-1 10:-0.903704 11:-1 12:-1 13:-1 14:-0.783231 15:-0.546218 16:-0.967862 17:-1 18:-1 19:-1 20:-1 21:-0.866337 
-32768 1:-0.836401 2:-0.896774 3:-0.913462 4:-1 5:-1 6:-0.815009 7:-0.357143 8:-0.86896 9:-0.880765 10:-1 11:-0.930323 12:-1 13:-1 14:-0.94683 15:-1 16:-0.967862 17:-1 18:-0.956275 19:-0.778243 20:-0.771186 21:-0.935644 
-32768 1:-0.94683 2:-1 3:-1 4:-1 5:-0.897233 6:-0.954625 7:-1 8:-1 9:-1 10:-1 11:-1 12:-1 13:-1 14:-1 15:-1 16:-1 17:-0.902878 18:-1 19:-1 20:-0.771186 21:-0.866337 
-32768 1:-0.94683 2:-0.966452 3:-0.958333 4:-1 5:-1 6:-0.954625 7:-1 8:-0.978706 9:-1 10:-1 11:-1 12:-1 13:-1 14:-1 15:-0.781513 16:-0.967862 17:-1 18:-1 19:-0.945607 20:-0.661017 21:-0.935644 
-32768 1:-0.836401 2:-0.863226 3:-0.958333 4:-0.876712 5:-0.786561 6:-0.905759 7:-1 8:-0.93448 9:-0.970754 10:-1 11:-1 12:-1 13:-0.509434 14:-0.783231 15:-1 16:-0.933251 17:-0.809353 18:-0.978947 19:-1 20:-0.661017 21:-0.935644 
-32768 1:-0.836401 2:-0.966452 3:-1 4:-0.940639 5:-1 6:-0.769634 7:-1 8:-1 9:-1 10:-0.903704 11:-1 12:-0.871287 13:-1 14:-0.513292 15:-1 16:-0.967862 17:-1 18:-0.978947 19:-0.665272 20:-0.889831 21:-1 
-32768 1:-0.889571 2:-1 3:-1 4:-0.876712 5:-1 6:-0.954625 7:-1 8:-0.978706 9:-1 10:-1 11:-0.966452 12:-1 13:-1 14:-0.889571 15:-1 16:-1 17:-1 18:-0.978947 19:-1 20:-1 21:-1 
-32768 1:-1 2:-1 3:-0.871795 4:-0.940639 5:-1 6:-0.954625 7:-1 8:-0.978706 9:-0.970754 10:-0.903704 11:-0.966452 12:-0.871287 13:-1 14:-0.94683 15:-1 16:-1 17:-1 18:-1 19:-0.945607 20:-1 21:-0.935644 
-32768 1:-0.94683 2:-0.966452 3:-1 4:-1 5:-0.897233 6:-1 7:-1 8:-1 9:-1 10:-0.903704 11:-0.966452 12:-1 13:-1 14:-0.889571 15:-1 16:-1 17:-0.953237 18:-0.978947 19:-0.887029 20:-1 21:-0.866337 
-32768 1:-1 2:-0.966452 3:-0.958333 4:-1 5:-0.897233 6:-1 7:-1 8:-0.978706 9:-0.970754 10:-1 11:-0.966452 12:-0.871287 13:-1 14:-0.94683 15:-0.781513 16:-1 17:-0.953237 18:-0.978947 19:-0.945607 20:-1 21:-1 
-32768 1:-0.672802 2:-0.863226 3:-0.74359 4:-0.817352 5:-0.162055 6:-0.954625 7:-1 8:-0.805078 9:-0.732283 10:-0.407407 11:-0.416774 12:-0.871287 13:-1 14:-0.619632 15:-1 16:-0.967862 17:-0.618705 18:-0.849393 19:-0.502092 20:0.127119 21:-1 
-32768 1:-1 2:-1 3:-1 4:-0.876712 5:-1 6:-0.905759 7:-0.690476 8:-0.955774 9:-1 10:-0.903704 11:-0.930323 12:-1 13:-1 14:-0.889571 15:-1 16:-0.967862 17:-1 18:-0.978947 19:-1 20:-1 21:-0.935644 
-32768 1:-0.566462 2:-0.930323 3:-0.913462 4:-0.876712 5:-0.897233 6:-0.769634 7:-1 8:-0.978706 9:-0.880765 10:-0.903704 11:-0.930323 12:-1 13:-0.509434 14:-0.619632 15:-0.546218 16:-0.967862 17:-0.665468 18:-0.870445 19:-0.778243 20:-0.661017 21:-0.866337 
-32768 1:-1 2:-0.966452 3:-1 4:-1 5:-0.897233 6:-1 7:-1 8:-1 9:-1 10:-0.8 11:-1 12:-0.871287 13:-1 14:-0.94683 15:-1 16:-1 17:-0.953237 18:-1 19:-0.945607 20:-1 21:-1 
-32768 1:-0.889571 2:-0.966452 3:-0.958333 4:-1 5:-1 6:-1 7:-1 8:-0.978706 9:-0.970754 10:-1 11:-1 12:-1 13:-1 14:-0.94683 15:-1 16:-1 17:-1 18:-1 19:-1 20:-1 21:-1 
-32768 1:-0.619632 2:-0.692903 3:-1 4:-0.515982 5:-0.786561 6:-0.769634 7:-1 8:-0.955774 9:-0.880765 10:-0.407407 11:-0.623226 12:-0.60396 13:-0.509434 14:-0.456033 15:-0.327731 16:-0.933251 17:-0.428058 18:-0.956275 19:-0.945607 20:-0.440678 21:-0.737624 
-32768 1:-0.730061 2:-0.863226 3:-0.788462 4:-0.757991 5:-0.786561 6:-0.905759 7:-1 8:-0.93448 9:-0.851519 10:-0.607407 11:-0.863226 12:-0.60396 13:-1 14:-0.566462 15:-0.327731 16:-0.967862 17:-0.571942 18:-0.893117 19:-0.832636 20:-0.550847 21:-0.866337 
-32768 1:-1 2:-1 3:-1 4:-1 5:-1 6:-1 7:-1 8:-1 9:-1 10:-1 11:-1 12:-1 13:-1 14:-1 15:-1 16:-1 17:-1 18:-1 19:-1 20:-0.889831 21:-0.935644 
-32768 1:-0.889571 2:-1 3:-1 4:-0.940639 5:-1 6:-1 7:-0.690476 8:-1 9:-0.910011 10:-1 11:-0.966452 12:-0.871287 13:-0.509434 14:-0.836401 15:-1 16:-1 17:-0.953237 18:-0.956275 19:-1 20:-1 21:-1 
-32768 1:-0.783231 2:-0.692903 3:-0.871795 4:-0.757991 5:-0.581028 6:-0.860384 7:-0.690476 8:-0.86896 9:-0.732283 10:-0.407407 11:-0.829677 12:-0.346535 13:-1 14:-0.619632 15:-0.546218 16:-0.901112 17:-0.47482 18:-0.893117 19:-0.832636 20:-0.661017 21:-0.866337 
-32768 1:-0.889571 2:-0.76 3:-0.913462 4:-0.456621 5:-0.478261 6:-0.675393 7:-0.690476 8:-0.955774 9:-0.910011 10:-1 11:-0.829677 12:-0.871287 13:-1 14:-0.402863 15:-0.781513 16:-0.933251 17:-0.47482 18:-0.91417 19:-0.887029 20:-0.550847 21:-0.866337 
-32768 1:-0.94683 2:-1 3:-1 4:-0.940639 5:-0.897233 6:-0.954625 7:-1 8:-1 9:-1 10:-0.903704 11:-1 12:-1 13:-1 14:-1 15:-1 16:-0.967862 17:-1 18:-0.978947 19:-1 20:-0.889831 21:-0.935644 
-32768 1:-0.889571 2:-1 3:-0.958333 4:-0.876712 5:-1 6:-0.954625 7:-1 8:-0.978706 9:-0.970754 10:-0.903704 11:-1 12:-1 13:-1 14:-1 15:-1 16:-0.967862 17:-0.953237 18:-1 19:-1 20:-1 21:-1 
-32768 1:-0.94683 2:-1 3:-0.958333 4:-0.876712 5:-1 6:-1 7:-1 8:-0.955774 9:-1 10:-1 11:-1 12:-1 13:-1 14:-1 15:-1 16:-1 17:-0.953237 18:-0.978947 19:-0.945607 20:-0.771186 21:-1 
-32768 1:-1 2:-1 3:-1 4:-1 5:-1 6:-1 7:-1 8:-1 9:-0.939258 10:-1 11:-1 12:-0.871287 13:-1 14:-1 15:-1 16:-0.967862 17:-0.953237 18:-0.978947 19:-1 20:-1 21:-1 
-32768 1:-1 2:-1 3:-0.958333 4:-0.817352 5:-1 6:-0.905759 7:-1 8:-0.955774 9:-0.939258 10:-0.903704 11:-1 12:-1 13:-1 14:-1 15:-1 16:-1 17:-1 18:-0.956275 19:-1 20:-0.889831 21:-1 
-32768 1:-1 2:-0.966452 3:-1 4:-1 5:-1 6:-1 7:-1 8:-1 9:-1 10:-1 11:-1 12:-1 13:-1 14:-1 15:-1 16:-1 17:-1 18:-1 19:-1 20:-1 21:-1 
-32768 1:-0.783231 2:-1 3:-1 4:-0.876712 5:-1 6:-0.769634 7:-1 8:-1 9:-0.970754 10:-0.703704 11:-1 12:-0.871287 13:-1 14:-0.94683 15:-0.781513 16:-1 17:-0.902878 18:-1 19:-0.887029 20:-1 21:-0.935644 
-32768 1:-1 2:-1 3:-0.913462 4:-1 5:-1 6:-0.815009 7:-0.690476 8:-1 9:-1 10:-1 11:-0.966452 12:-0.871287 13:-1 14:-0.94683 15:-1 16:-0.967862 17:-1 18:-0.978947 19:-0.778243 20:-1 21:-1 
-32768 1:-1 2:-1 3:-0.958333 4:-1 5:-1 6:-0.905759 7:-1 8:-0.978706 9:-0.970754 10:-1 11:-0.930323 12:-1 13:-1 14:-0.94683 15:-1 16:-1 17:-1 18:-1 19:-0.945607 20:-1 21:-1 
-32768 1:-0.94683 2:-0.896774 3:-0.958333 4:-0.940639 5:-0.683794 6:-0.769634 7:-0.690476 8:-0.955774 9:-1 10:-1 11:-1 12:-1 13:-1 14:-0.889571 15:-1 16:-0.967862 17:-0.902878 18:-0.935223 19:-1 20:-0.771186 21:-1 
-32768 1:-1 2:-1 3:-0.958333 4:-1 5:-1 6:-1 7:-1 8:-0.978706 9:-0.939258 10:-1 11:-1 12:-1 13:-1 14:-0.94683 15:-0.781513 16:-1 17:-1 18:-1 19:-1 20:-1 21:-1 
-32768 1:-1 2:-1 3:-1 4:-1 5:-1 6:-1 7:-1 8:-0.978706 9:-1 10:-0.903704 11:-1 12:-1 13:-1 14:-1 15:-1 16:-1 17:-1 18:-1 19:-1 20:-1 21:-1 
-32768 1:-0.566462 2:-0.863226 3:-0.74359 4:-0.876712 5:-0.367589 6:-0.630017 7:-0.690476 8:-0.955774 9:-0.970754 10:-0.703704 11:-0.930323 12:-0.732673 13:-0.509434 14:0.141104 15:-0.109244 16:-1 17:-0.953237 18:-0.91417 19:-0.778243 20:-0.771186 21:-0.341584 
-32768 1:-0.889571 2:-0.930323 3:-0.958333 4:-1 5:-1 6:-0.769634 7:-1 8:-0.978706 9:-1 10:-0.8 11:-1 12:-0.871287 13:-1 14:-0.730061 15:-1 16:-0.967862 17:-1 18:-1 19:-0.945607 20:-1 21:-0.935644 
-32768 1:-0.836401 2:-1 3:-0.830128 4:-0.940639 5:-0.786561 6:-1 7:-0.690476 8:-0.86896 9:-0.880765 10:-0.903704 11:-0.930323 12:-1 13:-1 14:-0.889571 15:-1 16:-0.967862 17:-0.902878 18:-0.956275 19:-0.887029 20:-0.440678 21:-0.737624 
-32768 1:-1 2:-0.930323 3:-0.958333 4:-0.940639 5:-1 6:-0.815009 7:-0.357143 8:-0.978706 9:-1 10:-1 11:-0.966452 12:-1 13:-1 14:-0.889571 15:-1 16:-0.967862 17:-0.953237 18:-1 19:-1 20:-0.889831 21:-1 
-32768 1:-1 2:-0.966452 3:-1 4:-1 5:-0.897233 6:-0.954625 7:-1 8:-0.93448 9:-0.939258 10:-1 11:-1 12:-0.871287 13:-1 14:-1 15:-0.781513 16:-0.967862 17:-0.953237 18:-1 19:-1 20:-0.771186 21:-1 
-32768 1:-0.94683 2:-1 3:-1 4:-1 5:-1 6:-0.954625 7:-0.690476 8:-0.978706 9:-0.939258 10:-0.903704 11:-0.966452 12:-1 13:-1 14:-0.94683 15:-1 16:-0.967862 17:-0.856115 18:-1 19:-1 20:-0.771186 21:-1 
-32768 1:-0.889571 2:-1 3:-0.871795 4:-0.940639 5:-1 6:-0.815009 7:-1 8:-0.978706 9:-1 10:-0.903704 11:-1 12:-0.871287 13:-1 14:-0.619632 15:-0.781513 16:-1 17:-0.953237 18:-1 19:-0.723849 20:-1 21:-0.866337 
-32768 1:-0.94683 2:-1 3:-0.958333 4:-0.757991 5:-0.897233 6:-0.954625 7:-1 8:-0.955774 9:-0.880765 10:-0.903704 11:-0.930323 12:-1 13:-1 14:-0.94683 15:-1 16:-1 17:-1 18:-1 19:-1 20:-0.889831 21:-1 
-32768 1:-0.730061 2:-0.896774 3:-1 4:-1 5:-1 6:-0.815009 7:-0.690476 8:-0.978706 9:-0.970754 10:-0.903704 11:-0.896774 12:-0.871287 13:-1 14:-0.889571 15:-1 16:-1 17:-0.953237 18:-0.893117 19:-0.778243 20:-1 21:-0.866337 
-32768 1:-0.889571 2:-1 3:-1 4:-1 5:-1 6:-1 7:-1 8:-0.978706 9:-0.910011 10:-0.903704 11:-1 12:-1 13:-1 14:-1 15:-1 16:-1 17:-1 18:-0.978947 19:-1 20:-1 21:-0.935644 
-32768 1:-0.889571 2:-0.930323 3:-0.958333 4:-1 5:-1 6:-1 7:-1 8:-0.978706 9:-0.970754 10:-0.8 11:-0.863226 12:-1 13:-1 14:-1 15:-1 16:-1 17:-1 18:-1 19:-1 20:-1 21:-1 
-31701.79172775574 1:-1 2:-1 3:-1 4:-1 5:-1 6:-1 7:-0.690476 8:-1 9:-1 10:-1 11:-1 12:-1 13:-1 14:-1 15:-1 16:-1 17:-1 18:-1 19:-1 20:-1 21:-1 
-32768 1:-0.783231 2:-0.966452 3:-0.871795 4:-0.817352 5:-1 6:-0.445026 7:-1 8:-0.955774 9:-1 10:-1 11:-0.966452 12:-1 13:-0.509434 14:-0.889571 15:-1 16:-1 17:-0.856115 18:-1 19:-0.610879 20:-1 21:-0.935644 
-32768 1:-1 2:-0.966452 3:-1 4:-1 5:-1 6:-1 7:-0.690476 8:-1 9:-0.910011 10:-1 11:-1 12:-1 13:-1 14:-1 15:-1 16:-1 17:-0.953237 18:-1 19:-0.945607 20:-0.889831 21:-1 
-32768 1:-0.836401 2:-0.829677 3:-0.871795 4:-0.634703 5:-0.786561 6:-0.905759 7:-0.047619 8:-0.847666 9:-0.851519 10:-1 11:-0.829677 12:-0.732673 13:-0.509434 14:-0.836401 15:-0.781513 16:-1 17:-0.665468 18:-0.91417 19:-0.887029 20:-0.771186 21:-1 
-32768 1:-1 2:-1 3:-1 4:-0.940639 5:-0.0592885 6:-1 7:-1 8:-0.978706 9:-1 10:-0.903704 11:-0.930323 12:-1 13:-1 14:-0.94683 15:-1 16:-1 17:-1 18:-1 19:-0.945607 20:-0.889831 21:-0.935644 
-32768 1:-0.672802 2:-0.930323 3:-0.871795 4:-0.817352 5:-0.683794 6:-0.860384 7:-1 8:-0.978706 9:-0.970754 10:-0.8 11:-0.896774 12:-1 13:-1 14:-0.783231 15:-0.546218 16:-0.967862 17:-0.856115 18:-0.893117 19:-0.887029 20:-0.889831 21:-0.935644 
-32768 1:-0.456033 2:-0.486452 3:-1 4:-0.940639 5:-0.367589 6:-0.905759 7:-1 8:-0.782146 9:-0.970754 10:-0.903704 11:-0.452903 12:-0.732673 13:-1 14:-0.402863 15:-1 16:-0.901112 17:-0.665468 18:-0.82834 19:-0.610879 20:-0.440678 21:-0.673267 
-32768 1:-0.94683 2:-0.930323 3:-0.871795 4:-1 5:-1 6:-0.954625 7:-1 8:-0.978706 9:-0.970754 10:-0.903704 11:-1 12:-0.871287 13:-1 14:-0.94683 15:-0.781513 16:-1 17:-1 18:-0.978947 19:-0.887029 20:-1 21:-1 
-32768 1:-1 2:-1 3:-1 4:-1 5:-1 6:-1 7:-1 8:-1 9:-1 10:-1 11:-1 12:-0.871287 13:-1 14:-1 15:-0.781513 16:-1 17:-0.953237 18:-1 19:-1 20:-1 21:-1 
-32768 1:-0.94683 2:-0.896774 3:-0.788462 4:-0.940639 5:-0.581028 6:-1 7:-0.357143 8:-0.86896 9:-0.970754 10:-0.903704 11:-0.930323 12:-0.475248 13:-0.509434 14:-0.94683 15:-1 16:-0.967862 17:-0.902878 18:-0.893117 19:-0.945607 20:-0.771186 21:-0.935644 
-32768 1:-0.889571 2:-0.966452 3:-0.958333 4:-0.876712 5:-1 6:-0.954625 7:-0.690476 8:-0.955774 9:-0.970754 10:-0.903704 11:-1 12:-0.732673 13:-1 14:-0.94683 15:-1 16:-1 17:-0.953237 18:-0.935223 19:-1 20:-1 21:-1 
-32768 1:-1 2:-1 3:-1 4:-1 5:-1 6:-1 7:-1 8:-0.955774 9:-0.970754 10:-1 11:-1 12:-1 13:-1 14:-1 15:-1 16:-1 17:-1 18:-1 19:-1 20:-1 21:-1 
-32768 1:-1 2:-1 3:-0.958333 4:-0.940639 5:-1 6:-1 7:-1 8:-0.93448 9:-1 10:-1 11:-1 12:-0.732673 13:-1 14:-0.889571 15:-1 16:-0.967862 17:-1 18:-1 19:-1 20:-1 21:-1 
-32768 1:-1 2:-1 3:-1 4:-0.817352 5:-0.897233 6:-0.905759 7:-0.690476 8:-0.955774 9:-1 10:-1 11:-0.966452 12:-1 13:-1 14:-0.889571 15:-1 16:-0.967862 17:-1 18:-0.956275 19:-0.887029 20:-0.661017 21:-1 
-32768 1:-1 2:-1 3:-1 4:-0.940639 5:-1 6:-1 7:-0.690476 8:-1 9:-1 10:-0.903704 11:-1 12:-0.871287 13:-1 14:-0.889571 15:-1 16:-1 17:-1 18:-1 19:-1 20:-1 21:-1 
-32768 1:-1 2:-1 3:-1 4:-1 5:-1 6:-1 7:-1 8:-1 9:-1 10:-1 11:-1 12:-1 13:-1 14:-1 15:-1 16:-1 17:-1 18:-1 19:-1 20:-1 21:-1 
-32768 1:-1 2:-1 3:-1 4:-1 5:-1 6:-1 7:-1 8:-1 9:-1 10:-1 11:-1 12:-1 13:-1 14:-1 15:-1 16:-1 17:-1 18:-1 19:-1 20:-1 21:-1 
-32768 1:-1 2:-0.966452 3:-0.958333 4:-1 5:-1 6:-1 7:-1 8:-0.955774 9:-0.939258 10:-1 11:-1 12:-1 13:-1 14:-1 15:-1 16:-1 17:-0.902878 18:-0.956275 19:-1 20:-0.889831 21:-1 
-32768 1:-0.94683 2:-0.930323 3:-0.913462 4:-0.940639 5:-1 6:-0.905759 7:-0.690476 8:-0.955774 9:-0.910011 10:-0.903704 11:-0.863226 12:-0.732673 13:-0.509434 14:-0.672802 15:-0.546218 16:-1 17:-0.809353 18:-0.956275 19:-1 20:-1 21:-0.935644 
-32768 1:-0.889571 2:-1 3:-0.958333 4:-1 5:-1 6:-1 7:-1 8:-0.913186 9:-0.970754 10:-1 11:-1 12:-1 13:-1 14:-0.889571 15:-1 16:-1 17:-0.953237 18:-0.978947 19:-0.945607 20:-0.889831 21:-1 
-32768 1:-1 2:-1 3:-0.913462 4:-0.817352 5:-1 6:-0.954625 7:-1 8:-0.978706 9:-0.970754 10:-1 11:-1 12:-0.871287 13:-1 14:-1 15:-1 16:-0.967862 17:-0.953237 18:-1 19:-1 20:-1 21:-1 
-28719.35866627755 1:-0.94683 2:-0.966452 3:-0.871795 4:-0.757991 5:-0.897233 6:-1 7:-1 8:-0.847666 9:-0.910011 10:-0.903704 11:-0.863226 12:-0.871287 13:-1 14:-0.889571 15:-0.546218 16:-1 17:-0.953237 18:-0.91417 19:-0.665272 20:-0.771186 21:-0.866337 
-32768 1:-0.94683 2:-0.896774 3:-0.913462 4:-0.817352 5:-0.581028 6:-0.720768 7:-0.690476 8:-0.913186 9:-0.970754 10:-0.8 11:-0.896774 12:-1 13:-1 14:-0.672802 15:-0.546218 16:-0.868974 17:-0.856115 18:-0.935223 19:-0.723849 20:-0.889831 21:-0.80198 
-32768 1:-0.94683 2:-1 3:-0.958333 4:-0.940639 5:-0.897233 6:-0.860384 7:-1 8:-1 9:-1 10:-0.8 11:-0.930323 12:-1 13:-1 14:-0.566462 15:-1 16:-1 17:-0.856115 18:-0.978947 19:-0.832636 20:-0.889831 21:-0.866337 
-32768 1:-0.889571 2:-0.930323 3:-0.958333 4:-0.940639 5:-1 6:-1 7:-0.357143 8:-1 9:-1 10:-0.903704 11:-1 12:-0.871287 13:-1 14:-1 15:-1 16:-1 17:-0.953237 18:-0.978947 19:-1 20:-1 21:-1 
-32768 1:-0.94683 2:-1 3:-0.958333 4:-1 5:-1 6:-1 7:-1 8:-0.978706 9:-1 10:-1 11:-1 12:-1 13:-1 14:-1 15:-1 16:-1 17:-0.953237 18:-1 19:-1 20:-1 21:-1 
-32768 1:-0.94683 2:-1 3:-1 4:-1 5:-1 6:-1 7:-1 8:-0.978706 9:-1 10:-1 11:-1 12:-1 13:-1 14:-0.94683 15:-1 16:-1 17:-1 18:-1 19:-1 20:-1 21:-1 
-32768 1:-0.889571 2:-0.966452 3:-1 4:-1 5:-0.897233 6:-0.860384 7:-1 8:-1 9:-1 10:-0.903704 11:-0.966452 12:-1 13:-1 14:-0.730061 15:-1 16:-1 17:-0.953237 18:-1 19:-1 20:-0.889831 21:-1 
-32768 1:-1 2:-1 3:-1 4:-0.940639 5:-1 6:-1 7:-1 8:-1 9:-1 10:-0.903704 11:-1 12:-1 13:-1 14:-1 15:-1 16:-1 17:-1 18:-1 19:-1 20:-1 21:-1 
-32768 1:-0.94683 2:-0.793548 3:-1 4:-0.940639 5:-0.897233 6:-0.954625 7:-1 8:-0.93448 9:-0.939258 10:-0.607407 11:-0.829677 12:-0.871287 13:-1 14:-0.94683 15:-1 16:-0.967862 17:-0.856115 18:-0.91417 19:-0.610879 20:-0.661017 21:-1 
-32768 1:-0.889571 2:-0.966452 3:-0.913462 4:-0.876712 5:-1 6:-0.954625 7:-1 8:-0.978706 9:-0.910011 10:-0.8 11:-1 12:-1 13:-1 14:-0.783231 15:-1 16:-1 17:-0.809353 18:-0.978947 19:-1 20:-1 21:-1 
-32768 1:-0.94683 2:-1 3:-1 4:-1 5:-0.897233 6:-1 7:-1 8:-0.978706 9:-1 10:-0.607407 11:-0.966452 12:-1 13:-1 14:-0.94683 15:-1 16:-1 17:-1 18:-1 19:-1 20:-1 21:-1 
-32768 1:-1 2:-1 3:-1 4:-0.940639 5:-1 6:-0.905759 7:-1 8:-0.978706 9:-0.970754 10:-1 11:-1 12:-1 13:-1 14:-1 15:-1 16:-1 17:-1 18:-1 19:-1 20:-0.889831 21:-1 
-32768 1:-0.94683 2:-1 3:-1 4:-1 5:-1 6:-0.905759 7:-1 8:-0.955774 9:-0.970754 10:-1 11:-1 12:-1 13:-1 14:-0.889571 15:-1 16:-1 17:-0.953237 18:-1 19:-0.945607 20:-1 21:-0.935644 
-32768 1:-1 2:-1 3:-1 4:-1 5:-1 6:-1 7:-1 8:-1 9:-0.970754 10:-1 11:-1 12:-1 13:-1 14:-1 15:-1 16:-1 17:-0.902878 18:-1 19:-1 20:-0.889831 21:-1 
-32768 1:-1 2:-1 3:-1 4:-1 5:-0.786561 6:-0.954625 7:-1 8:-1 9:-1 10:-1 11:-1 12:-1 13:-1 14:-1 15:-1 16:-1 17:-0.902878 18:-1 19:-0.945607 20:-1 21:-0.866337 
-32768 1:-1 2:-0.930323 3:-0.871795 4:-1 5:-0.897233 6:-0.860384 7:-1 8:-0.93448 9:-0.939258 10:-1 11:-0.966452 12:-1 13:-1 14:-0.94683 15:-0.781513 16:-0.967862 17:-0.902878 18:-0.978947 19:-0.945607 20:-0.771186 21:-1 
-32768 1:-0.783231 2:-0.966452 3:-0.871795 4:-0.817352 5:-0.581028 6:-1 7:-0.690476 8:-0.955774 9:-0.910011 10:-0.8 11:-0.966452 12:-0.871287 13:-0.509434 14:-0.730061 15:-1 16:-0.967862 17:-0.809353 18:-0.956275 19:-0.887029 20:-0.661017 21:-0.737624 
-32768 1:-0.836401 2:-0.966452 3:-0.830128 4:-0.940639 5:-0.683794 6:-0.815009 7:-0.690476 8:-0.93448 9:-0.939258 10:-1 11:-0.966452 12:-1 13:-1 14:-0.730061 15:-1 16:-0.967862 17:-0.902878 18:-0.91417 19:-0.832636 20:-0.771186 21:-0.935644 
-32768 1:-0.836401 2:-0.930323 3:-0.913462 4:-0.817352 5:-0.897233 6:-0.905759 7:-0.047619 8:-0.891892 9:-0.970754 10:-0.703704 11:-1 12:-1 13:-1 14:-0.889571 15:-1 16:-0.967862 17:-0.902878 18:-1 19:-0.887029 20:-0.889831 21:-1 
-32768 1:-0.94683 2:-0.966452 3:-1 4:-0.757991 5:-1 6:-1 7:-1 8:-1 9:-0.910011 10:-1 11:-0.966452 12:-1 13:-1 14:-1 15:-1 16:-1 17:-1 18:-1 19:-1 20:-1 21:-1 
-32768 1:-0.889571 2:-0.896774 3:-0.958333 4:-0.940639 5:-0.683794 6:-0.860384 7:-1 8:-0.978706 9:-0.970754 10:-0.903704 11:-0.930323 12:-0.871287 13:-1 14:-0.94683 15:-1 16:-0.933251 17:-0.953237 18:-0.978947 19:-0.945607 20:-0.889831 21:-0.935644 
-32768 1:-0.889571 2:-0.966452 3:-0.913462 4:-0.940639 5:-1 6:-0.954625 7:-0.690476 8:-1 9:-1 10:-0.8 11:-1 12:-1 13:-1 14:-0.94683 15:-1 16:-1 17:-0.902878 18:-0.978947 19:-1 20:-1 21:-0.935644 
-32768 1:-0.94683 2:-0.692903 3:-0.871795 4:-0.757991 5:-0.478261 6:-0.860384 7:-1 8:-0.891892 9:-0.970754 10:-1 11:-0.656774 12:-0.732673 13:-0.509434 14:-0.513292 15:-0.327731 16:-1 17:-0.809353 18:-0.91417 19:-0.610879 20:-0.440678 21:-0.935644 
-32768 1:-1 2:-0.896774 3:-0.830128 4:-1 5:-1 6:-0.905759 7:-1 8:-0.955774 9:-0.910011 10:-1 11:-0.896774 12:-1 13:-0.509434 14:-0.889571 15:-0.781513 16:-0.967862 17:-1 18:-0.978947 19:-0.723849 20:-0.889831 21:-0.935644 
-32768 1:-0.402863 2:-0.52 3:-0.490385 4:-0.456621 5:0.367589 6:-0.720768 7:-0.690476 8:-0.847666 9:-0.790776 10:0.474074 11:-0.52 12:-0.475248 13:-1 14:-0.292434 15:0.109244 16:-0.770087 17:-0.521583 18:-0.698785 19:-0.556485 20:0.00847458 21:-0.60396 
-32768 1:-0.672802 2:-0.863226 3:-1 4:-0.940639 5:-0.478261 6:-1 7:-1 8:-0.978706 9:-1 10:-0.703704 11:-0.930323 12:-0.871287 13:-1 14:-0.783231 15:-0.781513 16:-0.933251 17:-0.856115 18:-0.978947 19:-1 20:-0.771186 21:-0.935644 
-32768 1:-1 2:-0.896774 3:-0.958333 4:-1 5:-1 6:-0.815009 7:-1 8:-1 9:-0.939258 10:-1 11:-0.863226 12:-1 13:-1 14:-1 15:-1 16:-1 17:-0.953237 18:-1 19:-0.887029 20:-0.889831 21:-0.935644 
-32768 1:-1 2:-1 3:-0.958333 4:-1 5:-0.897233 6:-0.954625 7:-0.690476 8:-0.978706 9:-0.970754 10:-1 11:-1 12:-0.871287 13:-1 14:-0.94683 15:-0.781513 16:-1 17:-0.953237 18:-1 19:-1 20:-1 21:-1 
-32768 1:-0.94683 2:-1 3:-0.830128 4:-0.940639 5:-1 6:-0.954625 7:-0.690476 8:-0.93448 9:-0.939258 10:-0.703704 11:-0.966452 12:-1 13:-1 14:-0.94683 15:-0.781513 16:-0.967862 17:-0.953237 18:-0.935223 19:-0.887029 20:-1 21:-0.866337 
-32768 1:-0.889571 2:-0.930323 3:-0.958333 4:-0.940639 5:-0.897233 6:-0.815009 7:-0.690476 8:-0.978706 9:-0.970754 10:-1 11:-0.930323 12:-0.732673 13:-1 14:-1 15:-0.781513 16:-1 17:-0.953237 18:-0.956275 19:-0.945607 20:-1 21:-0.935644 
-32768 1:-0.889571 2:-0.966452 3:-1 4:-1 5:-1 6:-1 7:-0.357143 8:-0.978706 9:-0.970754 10:-1 11:-1 12:-1 13:-1 14:-0.94683 15:-0.781513 16:-1 17:-1 18:-1 19:-1 20:-1 21:-0.935644 
-32768 1:-1 2:-0.896774 3:-1 4:-1 5:-0.897233 6:-0.954625 7:-1 8:-0.978706 9:-1 10:-1 11:-0.930323 12:-1 13:-1 14:-1 15:-0.781513 16:-1 17:-1 18:-0.978947 19:-0.945607 20:-0.661017 21:-0.935644 
-32768 1:-0.836401 2:-0.52 3:-1 4:-0.940639 5:0.675889 6:-0.769634 7:-1 8:-0.955774 9:-0.910011 10:-0.903704 11:-0.452903 12:-0.871287 13:-1 14:-0.566462 15:-0.781513 16:-0.836836 17:-0.23741 18:-0.935223 19:-0.723849 20:-0.211864 21:-0.935644 
-32768 1:-0.0756646 2:-0.726452 3:-0.830128 4:-0.757991 5:-0.367589 6:-0.30541 7:-0.690476 8:-0.847666 9:-0.820022 10:-0.407407 11:-0.896774 12:-0.346535 13:1 14:0.574642 15:1 16:-0.901112 17:-0.47482 18:-0.849393 19:-0.443515 20:-0.440678 21:-0.80198 
-32768 1:-0.94683 2:-0.966452 3:-0.913462 4:-0.940639 5:-1 6:-0.905759 7:-0.357143 8:-0.955774 9:-0.939258 10:-0.903704 11:-1 12:-1 13:-1 14:-1 15:-1 16:-1 17:-0.953237 18:-0.978947 19:-1 20:-1 21:-0.935644 
-32768 1:-0.94683 2:-0.966452 3:-0.958333 4:-0.817352 5:-0.897233 6:-0.860384 7:-0.690476 8:-0.978706 9:-0.939258 10:-0.903704 11:-0.966452 12:-1 13:-1 14:-0.783231 15:-0.781513 16:-1 17:-0.856115 18:-0.935223 19:-1 20:-1 21:-0.935644 
-32768 1:-1 2:-1 3:-0.958333 4:-1 5:-1 6:-0.954625 7:-1 8:-1 9:-1 10:-1 11:-0.966452 12:-1 13:-1 14:-1 15:-1 16:-1 17:-1 18:-1 19:-1 20:-1 21:-1 
-32768 1:-1 2:-1 3:-1 4:-0.940639 5:-0.897233 6:-1 7:-0.690476 8:-1 9:-1 10:-1 11:-0.966452 12:-1 13:-1 14:-0.94683 15:-1 16:-1 17:-0.902878 18:-1 19:-1 20:-1 21:-0.866337 
-32768 1:-0.836401 2:-1 3:-0.958333 4:-0.876712 5:-0.581028 6:-0.769634 7:-1 8:-0.955774 9:-0.910011 10:-0.8 11:-1 12:-0.871287 13:-0.509434 14:-0.672802 15:-0.781513 16:-0.967862 17:-0.71223 18:-0.935223 19:-0.945607 20:-0.550847 21:-0.935644 
-32768 1:-0.889571 2:-0.896774 3:-0.958333 4:-0.876712 5:-1 6:-0.815009 7:-1 8:-0.913186 9:-0.76153 10:-1 11:-1 12:-1 13:-1 14:-0.672802 15:-1 16:-1 17:-0.809353 18:-0.956275 19:-0.723849 20:-0.889831 21:-1 
-32768 1:-0.889571 2:-1 3:-1 4:-0.876712 5:-0.897233 6:-0.815009 7:-1 8:-0.978706 9:-0.851519 10:-0.703704 11:-0.930323 12:-0.60396 13:-1 14:-0.836401 15:-1 16:-1 17:-0.953237 18:-0.956275 19:-0.887029 20:-0.771186 21:-0.935644 
-32768 1:-0.94683 2:-0.896774 3:-0.958333 4:-0.69863 5:-0.786561 6:-0.860384 7:-0.357143 8:-0.805078 9:-0.880765 10:-0.703704 11:-1 12:-0.60396 13:-1 14:-0.619632 15:-0.546218 16:-0.901112 17:-0.809353 18:-0.935223 19:-0.778243 20:-0.550847 21:-0.935644 
